{
  "W1": [
    [
      0.43292860545189527,
      0.14541774572139127,
      0.3179886667269227,
      -0.49155976186134204,
      -0.04448857222914747,
      0.06893718448829653,
      -1.5591617197164607,
      -1.7667016922664547
    ],
    [
      -0.26508094317643194,
      -1.0523464903903814,
      -0.44080873104116236,
      -0.000470642294573006,
      0.41213679384581275,
      -0.43836901593526983,
      0.34547238732996155,
      0.1767920233780849
    ],
    [
      -1.9269136877290296,
      0.014007925407345427,
      -0.010155318835761436,
      -0.7361857484173647,
      -0.2264580043916449,
      0.04320737792070123,
      1.0611780605087802,
      -0.3281042379496138
    ],
    [
      0.7815516253142306,
      0.1431651487602897,
      0.49212235197084203,
      0.4099603348667985,
      0.8957250908073547,
      0.8801266562034457,
      -0.48711902103502824,
      -0.6372507711493973
    ],
    [
      -0.046941913626370284,
      0.4721930172426555,
      0.54540288360559,
      0.3942113499519981,
      -0.2348479550647825,
      0.38264272889405737,
      -0.8196057673179921,
      0.4239335981501945
    ]
  ],
  "b1": [
    [
      0.0,
      0.0,
      -0.003135599780678471,
      0.0,
      0.0012266068720126646,
      -3.1226016379678676e-05,
      0.0009337568487326789,
      0.0
    ]
  ],
  "W2": [
    [
      -0.8153154572933738,
      0.3229473358334148,
      -0.33104474686746066,
      -0.11109974021515305,
      -0.5250330123528556
    ],
    [
      -0.15671153118483439,
      -0.41485962153368156,
      0.18746020991488216,
      -0.8698693291902049,
      -0.41299152437807224
    ],
    [
      -0.9292149749051519,
      0.6542206942996553,
      0.273408520459867,
      0.5533477884391625,
      -0.3908045150188005
    ],
    [
      0.489083721672115,
      0.654560071214197,
      -0.03035858751431834,
      -0.8396773888766014,
      0.3186061213659006
    ],
    [
      0.21184670369429442,
      -0.32796978034070584,
      0.27679395392816114,
      -0.49454696258767206,
      0.05074250449413878
    ],
    [
      -0.6347865785589594,
      -0.1112530566500676,
      0.03351012292387763,
      0.06589020130940919,
      -1.2245841486078344
    ],
    [
      0.36811021743355504,
      -0.6018705846685006,
      -0.5540578628539989,
      0.22588972789858483,
      -0.18776597419689778
    ],
    [
      -0.3992934937321043,
      0.5471580147553976,
      0.7607089634795225,
      -0.11312419406206416,
      -0.172207194541572
    ]
  ],
  "b2": [
    [
      0.003505639505753839,
      0.0008161225358784647,
      -0.00037631789808733555,
      -0.001957780590742108,
      -0.0019876635528028636
    ]
  ]
}